0.675921404664954,-0.777284534049317,-0.321848338476411,0.24860321979735,0.61957245466309,-0.515024408290675,0.124566824873139,-0.333535361725042,-0.280465704075269,-0.536657241727189,0.0314253785159629,0.856029875912891,-0.38790970670531,0.791643498315269,0.137483242526465,0.560684499021075,0.449375156430521,-0.41153316810825,-0.104680539030385,0.163671407321281,0.530652404412995,-0.0725307212053211,-0.452211133480703,1.05253912164902,0.525308138661397,-1.34275929787404,-0.487305312197742,-1.11229793577077,-1.1795030930045,-1.26356886993627,0.704991279287573,-0.950012912517135,1.37482990181053,0.372032663313505,-0.629926400310291,-1.832597623934,-1.75023502949442,-1.22136519832086,-2.93023053921165,0.370635832589675,0.993150702466198,0.603497046821402,0.386601390786477,-0.655676420568382,-0.368347724423284,-0.141854615207134,0.642957191737926,0.965306493394154,-0.708485770955284,-0.0685181085631308,-0.27117772960182,0.072870648386926,-0.197255466694939,0.346436272076458,0.364957352333047,-0.689042956855206,-0.123699734468753,-0.632743729618441,-0.00648555313457334,0.245345046438855,0.197043048118025,-0.100473720349526,0.19794651928972,0.0802628167498603,-0.297630661862527,-1.03442579269665,-0.586679232773801,-1.56248149797654,-0.187842736528394,0.79384122287226,
